svm_type c_svc
kernel_type precomputed
nr_class 2
total_sv 596
rho 1.62681
label 1 0
probA -4.25666
probB -0.104452
nr_sv 134 462
SV
4.425126014874794 0:1 
2.080451080238206 0:2 
2.817835577821629 0:4 
2.961700153938756 0:5 
7.609904818322891 0:6 
4.432749777044029 0:7 
6.050124636565901 0:8 
0.6102910054245609 0:10 
6.302601740155535 0:11 
2.25351392832154 0:13 
4.647020683962265 0:14 
4.070864346180971 0:15 
1.23300233660929 0:16 
0.009470281879753186 0:17 
6.982639630284281 0:18 
0.6702614544474109 0:19 
2.402941992638127 0:20 
0.06813352317558445 0:23 
1.839691565477533 0:25 
3.919218835376952 0:27 
4.540665807983074 0:28 
0.8666224897974387 0:29 
3.121676320160579 0:30 
1.126623481785428 0:33 
2.095865361883027 0:34 
1.616728654925209 0:35 
5.034399497973272 0:36 
4.974094714820524 0:37 
4.285701552128763 0:38 
3.056094027766787 0:39 
0.02569146233884442 0:40 
2.116308551099169 0:42 
0.7237870887737543 0:43 
3.967390947863229 0:45 
2.017584161269494 0:48 
2.130891246744119 0:49 
3.16827332100735 0:51 
2.012418936937385 0:52 
5.27603169531752 0:54 
4.420796232157137 0:55 
3.74859422456477 0:56 
2.78874994727696 0:57 
2.569582461251275 0:58 
3.573443095341861 0:59 
0.1501329379341133 0:60 
1.053745510259971 0:61 
5.605462119675219 0:63 
6.427248994066233 0:64 
2.165719111268751 0:65 
2.726117072636449 0:67 
1.826059682672627 0:70 
1.808924186517728 0:71 
3.523217497483281 0:72 
8.063098484119605 0:73 
0.2329430716157088 0:74 
1.086300037984341 0:75 
4.821449013216347 0:76 
5.961248283836126 0:78 
0.07432008382467373 0:79 
4.258343402626919 0:80 
4.842789116335048 0:81 
1.048686259406435 0:82 
1.28558630163451 0:84 
1.585170110214972 0:86 
6.510967970079198 0:87 
4.025446033697389 0:88 
2.560648959016153 0:89 
1.808014060754226 0:90 
1.084225068264449 0:91 
3.412428435910704 0:92 
2.776316038716376 0:93 
3.4037094224938 0:94 
2.105721745081182 0:95 
4.252727712488029 0:96 
1.552613268957213 0:97 
2.685577050684154 0:100 
1.014541711599949 0:101 
1.023980583738736 0:102 
1.231689419897674 0:104 
5.784741946112327 0:105 
3.966754255652768 0:106 
3.115697004496286 0:107 
9.548737257648295 0:108 
6.215482169330658 0:109 
0.4592624537138147 0:110 
2.764145946746523 0:111 
3.897926752259273 0:113 
0.001463773803330847 0:114 
2.420181800684071 0:115 
5.283767005418754 0:116 
6.684722452869919 0:117 
2.81474289309995 0:118 
1.156130279889219 0:120 
2.813128042585293 0:121 
3.707716987367522 0:122 
4.430447941920569 0:123 
0.05637345421274757 0:124 
6.43713590453507 0:125 
2.30050393726128 0:126 
1.277652095902476 0:127 
3.430000150912856 0:129 
4.805229279352478 0:130 
3.161399479275045 0:132 
0.1918890127119484 0:134 
2.491721099209031 0:135 
5.193834439425039 0:136 
3.549416291223029 0:138 
0.2368580181705694 0:141 
2.315208117566288 0:142 
5.320336258304684 0:143 
5.995239594691342 0:144 
11.05514912326099 0:145 
5.194289753652864 0:146 
1.851208440699413 0:147 
0.6550713578705737 0:149 
1.049414627654256 0:150 
2.870160948009642 0:152 
2.996042682620368 0:153 
3.927035462637875 0:155 
4.745007986014956 0:156 
6.517043920879424 0:157 
1.70566763952186 0:158 
5.122882146781768 0:160 
3.358115342280282 0:161 
4.277455736921674 0:162 
4.460487765835341 0:163 
0.9362024821645955 0:164 
5.387078510076068 0:166 
5.05939400964143 0:168 
6.637302958564219 0:170 
5.555850711445872 0:171 
2.712913289729396 0:172 
4.973174004327224 0:173 
4.704482863462284 0:174 
-1.662533706032894 0:222 
-1.662433850178405 0:236 
-0.9198624297419822 0:271 
-0.04790131999565127 0:274 
-3.927492058034911 0:277 
-1.273699745492896 0:296 
-0.08206237020183449 0:350 
-0.3208917911209108 0:372 
-0.352799007841923 0:419 
-0.6372524129463502 0:444 
-2.478115335461622 0:456 
-0.05740434276502038 0:458 
-0.5812268700964144 0:547 
-3.663473001408549 0:571 
-0.4067823040593721 0:590 
-0.5491797897651343 0:604 
-0.2938039610904613 0:649 
-3.277900195833222 0:657 
-0.1774285987663349 0:668 
-1.641952160670451 0:669 
-0.5490116784546664 0:678 
-6.286376710218809 0:708 
-0.5003971919199861 0:787 
-0.1378956575403789 0:822 
-5.357062915013298 0:852 
-0.3382882551371063 0:860 
-0.2850324943823427 0:898 
-1.899247772809092 0:922 
-0.487021464904292 0:926 
-0.2289425160472469 0:931 
-0.9950974553533547 0:956 
-0.6985632052177696 0:970 
-0.4629754904721232 0:995 
-0.01849664534666655 0:1028 
-1.09483358661431 0:1054 
-0.0347442946657702 0:1066 
-0.2853323030391473 0:1082 
-1.587947024722935 0:1090 
-0.1833082295789632 0:1117 
-2.161854859959456 0:1139 
-0.3693828764949547 0:1189 
-1.746686962927715 0:1220 
-0.03854369877342091 0:1254 
-3.734407985632592 0:1296 
-0.4562512320408802 0:1336 
-1.079536693903418 0:1341 
-1.464373917547151 0:1345 
-0.250589090939743 0:1350 
-0.5811508839800321 0:1373 
-1.134261685068399 0:1385 
-0.4896864035447214 0:1404 
-0.5749332419918277 0:1419 
-0.03274965287268203 0:1426 
-1.104100599591744 0:1430 
-0.4915630444422734 0:1447 
-1.572794050083631 0:1449 
-0.1484735930755623 0:1530 
-0.3377263612767749 0:1554 
-3.233355949173755 0:1675 
-0.1968829940081434 0:1707 
-2.023085784390062 0:1737 
-0.002043962899681627 0:1766 
-0.1119294879866272 0:1782 
-0.07464460478581159 0:1888 
-0.9097079229560767 0:1938 
-0.06108755806806068 0:1944 
-0.5441229068256157 0:1957 
-0.4026318543838904 0:1964 
-0.07826508947926897 0:1969 
-1.513962553141041 0:1987 
-0.3329773603130933 0:2086 
-0.05957204445623111 0:2098 
-1.9417247071508 0:2158 
-0.7251398403868163 0:2311 
-0.332280800771282 0:2341 
-0.1736875944732544 0:2364 
-0.1825360188838241 0:2407 
-2.484217979736115 0:2442 
-0.5620668874505008 0:2448 
-0.3256685071521613 0:2522 
-1.234285594937806 0:2545 
-0.09681585971607574 0:2557 
-0.148795339926306 0:2571 
-1.807150190357036 0:2621 
-0.8476643213299457 0:2629 
-1.425279904401614 0:2647 
-0.1352948831142938 0:2668 
-1.1394662574112 0:2694 
-0.2111010998571847 0:2699 
-0.5431453163634539 0:2721 
-3.215801813578091 0:2764 
-0.1235359468544276 0:2773 
-0.5437336258517959 0:2775 
-0.04645297899912552 0:2777 
-1.490962568954753 0:2840 
-6.807419486173733 0:2887 
-0.8672589818569575 0:2981 
-0.1194748401944146 0:2988 
-3.291545818941428 0:2989 
-0.04410947414232645 0:3030 
-0.4788535259994228 0:3040 
-2.085702107866196 0:3045 
-0.6322045037516362 0:3064 
-0.0612440159669417 0:3068 
-0.6063657104132777 0:3095 
-7.76744092713978 0:3097 
-0.8461208180923661 0:3132 
-0.2695407752821198 0:3182 
-1.620303323338146 0:3198 
-0.2006097807000542 0:3241 
-0.9923673360784453 0:3244 
-0.6956528987158754 0:3268 
-0.1856196611097662 0:3344 
-0.1616149627027962 0:3357 
-1.488150858221217 0:3468 
-0.9970760536876578 0:3477 
-0.4563461992001286 0:3496 
-1.696483365134303 0:3530 
-0.007242858677897341 0:3544 
-0.3572115600091655 0:3564 
-0.1716664688836876 0:3568 
-3.395709222248978 0:3583 
-0.2437005912867997 0:3682 
-0.6833700872761457 0:3689 
-0.1276945535786027 0:3756 
-0.01574801162167431 0:3807 
-0.150068186936575 0:3881 
-4.70506417670228 0:3898 
-1.101869589385677 0:3943 
-0.006593004607300503 0:4002 
-0.8016844131262657 0:4021 
-0.2360294668921552 0:4032 
-0.2913329808393041 0:4034 
-0.9644641087672453 0:4079 
-1.027136276187752 0:4097 
-0.3094229266643643 0:4150 
-2.13916214825532 0:4202 
-2.067014929914751 0:4216 
-2.597413087917496 0:4277 
-0.1721661880455964 0:4311 
-0.08708421234460727 0:4315 
-1.669955133806591 0:4329 
-2.404407020416338 0:4333 
-0.209813566416008 0:4334 
-0.3475884528143827 0:4351 
-0.1836131436823936 0:4426 
-0.03614809749277158 0:4454 
-0.8686095863425479 0:4467 
-0.4837764870888238 0:4473 
-0.00840260465771947 0:4477 
-0.7992910446223408 0:4480 
-0.4380834852095672 0:4520 
-0.1131394650306836 0:4538 
-0.3730696396429316 0:4626 
-2.205327686575404 0:4639 
-1.316065962760411 0:4647 
-0.5065789767944096 0:4805 
-6.985916457530863 0:4854 
-0.9812811542418587 0:4884 
-1.625341528625514 0:4994 
-0.01998568197185253 0:5024 
-0.3186126836894406 0:5054 
-0.3105093199670838 0:5055 
-0.3100497619627796 0:5075 
-0.7215410666213007 0:5138 
-0.1239241589675101 0:5157 
-1.42759214984254 0:5189 
-0.3382917174406804 0:5192 
-1.809851291305284 0:5219 
-0.0129491143806168 0:5222 
-3.102009355150114 0:5312 
-0.04914272747860682 0:5345 
-0.3263465495196591 0:5392 
-1.428466997470988 0:5398 
-0.8736920287817148 0:5425 
-0.04805959364421331 0:5459 
-0.5445836433800406 0:5477 
-0.1580651374898225 0:5487 
-5.250692237414553 0:5539 
-0.7768639130705722 0:5561 
-4.548456648624755 0:5592 
-0.5256711909497737 0:5639 
-0.03972961121316012 0:5652 
-3.130347524499816 0:5912 
-0.01578698193006317 0:5923 
-0.6904701637457221 0:5934 
-0.1901799992004837 0:5962 
-0.186600084317005 0:5971 
-0.1088498759928987 0:5992 
-0.8185051438841054 0:6033 
-0.2146187911645001 0:6040 
-0.03135658812931486 0:6044 
-0.6250385561022308 0:6057 
-0.3417780110844978 0:6088 
-0.9230219113608545 0:6123 
-0.9588910746808644 0:6175 
-1.033026765851013 0:6270 
-0.6324127479961138 0:6335 
-0.5166485456291935 0:6342 
-0.6226051414206382 0:6370 
-0.7134271751033494 0:6386 
-0.7742280190769986 0:6526 
-1.263999845706831 0:6538 
-0.3784062133927742 0:6578 
-1.347035811754727 0:6609 
-0.1142115293276982 0:6671 
-0.3494554642660838 0:6696 
-0.6731805420342621 0:6698 
-0.3760378428139648 0:6760 
-0.6698257414424392 0:6839 
-4.795828009193181 0:6914 
-0.6355503073160776 0:7059 
-0.6256414819601966 0:7078 
-0.005005470064909861 0:7085 
-0.7347453976120156 0:7091 
-0.695653804603934 0:7122 
-1.717803693481303 0:7160 
-1.124036892380775 0:7223 
-0.1267804003585388 0:7257 
-0.4635294741684408 0:7263 
-0.001982654589630818 0:7295 
-0.724122977548705 0:7320 
-0.6441664685801352 0:7327 
-4.295139381981922 0:7416 
-0.3344152184085125 0:7419 
-0.4320452453035226 0:7435 
-1.474234198516625 0:7436 
-0.2902904992784433 0:7482 
-1.735463792653723 0:7565 
-0.4846672735804968 0:7583 
-0.01836801485826748 0:7584 
-0.1007491040311728 0:7600 
-0.5572895084123864 0:7608 
-0.03639341610308169 0:7683 
-0.337076219686521 0:7727 
-0.1180810925404154 0:7730 
-0.6335849019772407 0:7780 
-3.5492804823975 0:7796 
-0.3012539915399143 0:7802 
-0.8577836207367308 0:7848 
-0.1883934287749241 0:7887 
-1.563879928569846 0:7963 
-1.00698040006605 0:8002 
-0.1652483429670087 0:8023 
-0.4300322628420684 0:8035 
-0.9064139345725802 0:8039 
-0.3209712569160513 0:8044 
-0.2866349479648412 0:8050 
-1.040550579312645 0:8051 
-0.07094027128635101 0:8078 
-1.298466370378258 0:8081 
-0.3114937634754789 0:8274 
-1.44320479758997 0:8356 
-1.720040388886939 0:8378 
-1.310459535898852 0:8402 
-0.5562840369550724 0:8415 
-1.777173058222568 0:8464 
-0.2264845231708363 0:8538 
-0.03118997547441903 0:8589 
-0.9494716355509351 0:8590 
-1.229471905224825 0:8602 
-2.563015128332364 0:8613 
-0.1145101590355757 0:8643 
-0.9815523143231095 0:8651 
-0.5101121713235228 0:8670 
-2.199110966523145 0:8699 
-0.1922593311862936 0:8708 
-0.09447221714507442 0:8715 
-0.9036971545943173 0:8726 
-2.356448127735726 0:8805 
-0.184411519237583 0:8809 
-1.472711035200669 0:8860 
-0.2162880897579363 0:8869 
-0.2712213004554631 0:8915 
-0.09224545613646784 0:8923 
-1.44229337076339 0:8933 
-0.5385315313197262 0:8997 
-0.191647471594459 0:9030 
-2.529719871233929 0:9120 
-0.2398788378306303 0:9151 
-1.798140299819551 0:9176 
-0.970309974972889 0:9180 
-1.052087767574015 0:9198 
-1.3810164133616 0:9264 
-0.9011048886234129 0:9274 
-0.7461062466101851 0:9347 
-0.1724775074383263 0:9356 
-0.1578377813749781 0:9374 
-0.04788073945261116 0:9687 
-1.116260333590501 0:9695 
-0.2256640853136175 0:9759 
-0.03742160060919025 0:9804 
-0.06824675690330533 0:9816 
-0.8953747745276357 0:9846 
-2.486165585767615 0:9957 
-0.4626133450959697 0:10020 
-0.3997603817949354 0:10023 
-0.6760224000764038 0:10069 
-0.8578265457283164 0:10078 
-2.331811859052947 0:10082 
-0.2485787823428306 0:10116 
-1.925788798997995 0:10154 
-0.3780621702625216 0:10158 
-1.079887976017871 0:10171 
-0.07344876052947399 0:10173 
-5.717335676762439 0:10182 
-0.4542753588175569 0:10183 
-1.027407684203994 0:10211 
-0.6573652268965847 0:10262 
-1.118131038620807 0:10289 
-0.2065439473853851 0:10290 
-0.6669733610260721 0:10305 
-0.4742384115852652 0:10346 
-3.93500133150344 0:10356 
-1.923767795226978 0:10366 
-0.01837984405376164 0:10378 
-1.333585775740046 0:10412 
-1.164735209985411 0:10488 
-1.385068585724329 0:10490 
-0.2665020090401849 0:10518 
-0.6191652289855276 0:10549 
-4.142202314980862 0:10556 
-0.315044665220753 0:10613 
-0.4485135591740818 0:10614 
-2.0429338064937 0:10650 
-0.1619030458043498 0:10674 
-0.06753855791008898 0:10687 
-0.08705248378074287 0:10694 
-0.3188511020236795 0:10718 
-0.3894094765105587 0:10726 
-0.2295370906177167 0:10739 
-0.670294175668802 0:10751 
-0.9798971541587967 0:10782 
-0.09773941829173746 0:10787 
-1.921083520208731 0:10797 
-0.1071642402557947 0:10829 
-0.9774604986168002 0:10869 
-0.06246304406222074 0:10875 
-0.9632896329666109 0:10898 
-0.4658563111739359 0:10901 
-3.791608827478163 0:10910 
-0.008406323505415999 0:10974 
-0.8208896330251095 0:10982 
-0.04561102720511864 0:11019 
-0.2872291002925541 0:11039 
-0.4373434069980793 0:11049 
-0.07271218903329218 0:11057 
-3.579726840395308 0:11061 
-0.7044822484339137 0:11115 
-0.0724996139031492 0:11130 
-0.5839189328912637 0:11206 
-0.05308634802501221 0:11219 
-0.4663764827982033 0:11262 
-0.4338138857587465 0:11399 
-0.8137095366222878 0:11421 
-3.801013519237909 0:11446 
-0.1480992276457688 0:11449 
-1.392328597718371 0:11460 
-1.889761129601513 0:11469 
-0.3261563406856243 0:11479 
-0.4830933038639603 0:11540 
-0.07516315554172237 0:11567 
-4.813347567399535 0:11580 
-0.4353544500123302 0:11584 
-0.1956691519303245 0:11620 
-2.05776021844707 0:11688 
-0.3685762837732362 0:11735 
-2.504415210497758 0:11767 
-0.7102894706703065 0:11812 
-0.2962152337537977 0:11871 
-0.1992107188053984 0:11904 
-0.230497774759389 0:11912 
-0.3368921807212341 0:11950 
-0.8055935484813619 0:12007 
-0.4050865276905382 0:12071 
-0.5757069316520902 0:12079 
-1.787490641509113 0:12126 
-0.1315874635269111 0:12158 
-0.6182886934087454 0:12197 
-2.58048040230088 0:12227 
-0.3231485797520013 0:12231 
-0.04835021939229021 0:12266 
-0.7088719925247273 0:12280 
-2.897307827377955 0:12314 
-0.1360589233592367 0:12479 
-1.782539163693521 0:12506 
-0.3864176316985889 0:12510 
-0.1044382011418284 0:12524 
-1.304890060759301 0:12542 
-2.545067468122812 0:12557 
-0.7538860855183009 0:12620 
-0.3794773823250884 0:12626 
-0.7544944732552905 0:12628 
-0.2610089366178225 0:12662 
-0.8892141654504813 0:12663 
-2.339800360584529 0:12679 
-0.1349637902632096 0:12694 
-3.107094941106032 0:12709 
-2.150301473450449 0:12714 
-0.2383298946527928 0:12730 
-0.8468252737873327 0:12731 
-0.2949824962805154 0:12772 
-3.586365203064897 0:12788 
-0.7992891934674955 0:12799 
-0.03409228550248783 0:12809 
-0.5686282563656235 0:12813 
-0.3338721384919084 0:12815 
-0.9980311943303751 0:12885 
-0.5256526967368341 0:12893 
-0.6313092926564207 0:12932 
-0.6715233299351835 0:12969 
-1.600197089973171 0:13001 
-1.799162809452881 0:13008 
-0.3844003506595287 0:13010 
-0.612629468158602 0:13014 
-0.322598433563018 0:13027 
-0.8639077134459414 0:13060 
-0.4266699422516512 0:13073 
-1.05749289125302 0:13090 
-0.1859789043878085 0:13106 
-0.2252661873018038 0:13142 
-3.522894214760364 0:13209 
-0.8854877830856277 0:13224 
-0.2708230201096619 0:13268 
-0.01511171998711452 0:13312 
-0.3374790750781083 0:13350 
-0.362064372081139 0:13352 
-0.5060783229505447 0:13369 
-1.361345558212784 0:13387 
-1.095926239949027 0:13398 
-4.008041238742587 0:13409 
-1.096533276346792 0:13424 
-5.104095057183044 0:13500 
-0.3284718417192128 0:13533 
-1.187311822700244 0:13584 
-0.2300725886676279 0:13651 
-0.3051935258201424 0:13691 
-1.143828657812576 0:13708 
-0.07319224613282684 0:13713 
-0.4604899142257194 0:13800 
-0.4473150394814938 0:13813 
-0.3698803475317109 0:13853 
-1.123440384310592 0:13887 
-2.555509809633971 0:13927 
-0.1486116365041656 0:13959 
-0.6289326412662503 0:13976 
-0.6088148877850196 0:14016 
-0.8787432022609821 0:14028 
-0.3538503862902532 0:14155 
-0.05032499110869748 0:14176 
-0.3829602844193196 0:14198 
-0.08577048707998255 0:14249 
-0.1632350719991589 0:14264 
-0.8723283927628187 0:14294 
-0.01539755123308138 0:14335 
-2.940782213853352 0:14370 
-0.03332312823784589 0:14400 
-0.7462345740369988 0:14447 
-0.4899013079021812 0:14456 
-0.3580959074206237 0:14458 
-0.3925913531913298 0:14514 
-0.3932998675306917 0:14517 
