svm_type c_svc
kernel_type precomputed
nr_class 2
total_sv 876
rho -1.80761
label 0 1
probA -4.49304
probB 0.266875
nr_sv 656 220
SV
1.847563379089521 0:4 
0.7746648575951728 0:81 
1.973798140405741 0:98 
1.729542809092097 0:148 
0.4980259778319729 0:250 
2.135344777878935 0:251 
0.2626482246663915 0:260 
2.093814072609163 0:355 
1.437108600383326 0:361 
0.2822805553007885 0:384 
1.266223183850539 0:410 
0.7021955295635949 0:421 
0.3148694412402931 0:450 
1.426090319133911 0:512 
0.2781691830673406 0:517 
0.9647018960413172 0:533 
0.5889420386120636 0:540 
0.5667538667555868 0:707 
1.68911605981735 0:717 
0.6869539087686785 0:807 
0.3816540566353713 0:886 
0.2048505757440718 0:943 
0.9616644148590251 0:983 
0.3104456291474622 0:1002 
0.2557066423383864 0:1008 
3.186862838152602 0:1040 
0.1195220837284152 0:1048 
0.5683828871289842 0:1055 
1.460586344038546 0:1071 
0.4310448217437372 0:1136 
0.1592340520378608 0:1139 
0.1393652411803233 0:1147 
2.47135885249247 0:1187 
0.2781868844441303 0:1188 
0.2383957777369973 0:1247 
0.2536953497838504 0:1275 
0.3314889426982096 0:1291 
0.8312336965849753 0:1305 
0.03691408046709175 0:1387 
0.54704691990747 0:1420 
0.3417167170811947 0:1463 
0.07172360001637584 0:1541 
3.945345738287355 0:1543 
0.5436095655697553 0:1559 
0.9669951238142355 0:1565 
0.04404940808780942 0:1606 
1.394463154898758 0:1607 
0.6164200285462111 0:1660 
4.597601555121265 0:1681 
1.888632778298655 0:1761 
3.825839000736591 0:1825 
2.10982652454875 0:1844 
0.4474347539724361 0:1992 
0.7029826547342837 0:1996 
3.519815128235265 0:2027 
4.766819120883866 0:2028 
1.018797028871314 0:2200 
0.07473805572488515 0:2273 
0.360839756434099 0:2276 
0.1735617405930138 0:2392 
0.6263459939036645 0:2451 
1.528317785085206 0:2513 
1.648719813707687 0:2541 
3.843605918008891 0:2567 
0.3663530372042079 0:2584 
0.4128696303012979 0:2607 
0.2459490343710653 0:2614 
0.05243937221754359 0:2630 
1.183023549829302 0:2686 
0.0203836043923893 0:2710 
0.8461047716885345 0:2712 
4.379826576387095 0:2716 
0.3347917467635092 0:2729 
1.23579639300234 0:2745 
0.091100046839357 0:2817 
2.4292588511198 0:2895 
0.4917162357138605 0:2916 
0.281500524136986 0:2971 
0.4604176156749912 0:2972 
0.2341678768262331 0:2983 
1.538261516516098 0:3030 
0.1401131393972865 0:3117 
0.3418788630821831 0:3195 
1.258169972488466 0:3244 
0.3648946161115722 0:3293 
0.09874311489373422 0:3315 
0.209828618719768 0:3321 
1.158779599385571 0:3372 
0.4156072338126791 0:3421 
0.3550315749604188 0:3428 
8 0:3530 
0.4345872786015296 0:3568 
0.0484089574624039 0:3575 
1.389172668719257 0:3597 
1.170188813383431 0:3613 
1.035812404902578 0:3629 
0.08709529155819322 0:3634 
0.2455766359939696 0:3643 
1.351058702740953 0:3650 
0.07182284828508738 0:3771 
2.592325675104737 0:3835 
0.3492828171758755 0:3933 
0.1728306840324042 0:3943 
1.56789966536914 0:3946 
0.07044203505872625 0:3983 
0.009521018681760297 0:3990 
0.7270091287085622 0:4004 
0.07865545908979442 0:4022 
0.2426567258018265 0:4160 
0.6500482871097508 0:4234 
0.9598703923001466 0:4242 
0.7773498839078011 0:4263 
0.4878050163758025 0:4331 
0.005573583005199872 0:4386 
0.8456893272294363 0:4415 
1.4513752994922 0:4436 
0.1571285077819619 0:4444 
1.127674850618493 0:4466 
3.634255236496259 0:4505 
1.465530509557402 0:4597 
0.232912705996975 0:4615 
0.299115448402852 0:4616 
1.438682576221848 0:4645 
0.9543014719686356 0:4699 
1.028807060574674 0:4708 
0.3847977190040176 0:4710 
0.2957369958774582 0:4720 
0.1431770365205906 0:4746 
1.963853423271867 0:4764 
4.222125342147744 0:4818 
1.026695098749574 0:4825 
0.184866737318942 0:4855 
0.6650794522694743 0:4929 
3.586762361517897 0:4961 
0.2334942924632697 0:4994 
1.823623277232301 0:4998 
1.461974240961321 0:5048 
0.5637414932780374 0:5211 
0.1427789051736326 0:5289 
1.572474330109288 0:5324 
0.6411344287495223 0:5361 
0.4906865620703986 0:5415 
0.7344395860385752 0:5532 
3.240317866835064 0:5553 
4.038183608915639 0:5637 
0.31906044252775 0:5658 
0.5357919373225334 0:5682 
0.1865456270628312 0:5687 
0.14745269229643 0:5702 
0.04683554530897255 0:5793 
1.087841224475637 0:5795 
0.4712141473603207 0:5889 
0.211733452810539 0:5891 
0.1268654043722808 0:5955 
0.8953072141103858 0:6011 
0.8231775930977951 0:6051 
1.62095878207702 0:6053 
1.669899008050948 0:6157 
0.2786918567614252 0:6308 
0.3455920063140693 0:6361 
1.080857906644992 0:6399 
0.2470604616283952 0:6465 
0.5814281354759591 0:6484 
0.7183677295911641 0:6570 
0.2702977532836098 0:6583 
0.1211763601294079 0:6584 
2.779147052401916 0:6603 
0.1160320606284894 0:6614 
0.0116697255374501 0:6633 
3.101534958968038 0:6682 
0.09518437637625309 0:6690 
1.651191357337112 0:6725 
0.4394393109662778 0:6728 
0.8364826380833057 0:6748 
4.010366044344583 0:6755 
3.460852804427916 0:6760 
0.6560027874907316 0:6766 
0.7349620342055099 0:6768 
0.1059618330406869 0:6822 
1.302996843111488 0:6852 
0.2153572812709165 0:6854 
0.06149742812207579 0:6879 
3.117240805564879 0:6900 
0.8600187282902781 0:6904 
0.7193714439733275 0:7013 
0.04111136104018875 0:7014 
0.01084269652783282 0:7055 
8 0:7128 
2.891612209897847 0:7248 
0.2167985176167611 0:7260 
0.4484179613588907 0:7268 
0.2433634016045186 0:7269 
0.01715532826802933 0:7292 
0.6575274214159278 0:7304 
2.858344762295371 0:7309 
0.8974190623923929 0:7377 
0.6731676550210395 0:7391 
1.149135772226014 0:7476 
0.08601073225057131 0:7488 
0.4523122132399493 0:7510 
0.183234462822582 0:7564 
1.235722661683145 0:7585 
5.319401219989714 0:7646 
0.9241563419837455 0:7699 
0.05773081264981893 0:7785 
1.111969927474006 0:7790 
0.02098831925284696 0:7861 
0.06748099767236194 0:7891 
1.217532419274513 0:7898 
0.7988058924358036 0:7910 
0.07260637633414491 0:7957 
0.1721199913290972 0:8106 
0.7658650795067189 0:8156 
0.433820439722534 0:8195 
0.6761410800171966 0:8236 
0.05382157563312685 0:8255 
0.2277269050690128 0:8262 
1.111971704341432 0:8276 
2.255797339273641 0:8295 
0.01039211285332965 0:8405 
0.1633083128269447 0:8415 
0.04185959330641728 0:8455 
4.523677228788943 0:8456 
8 0:8457 
1.288355661391117 0:8471 
2.98097896025083 0:8494 
0.7717307936854257 0:8582 
4.589484000527788 0:8586 
1.041135738793348 0:8596 
0.446473304393847 0:8695 
0.4310683999415003 0:8704 
0.8008852648939576 0:8722 
2.375617262786052 0:8800 
3.955401540740137 0:8905 
6.00735505188075 0:8929 
1.661280290117644 0:8977 
1.536140451489372 0:9036 
2.308420641409259 0:9079 
1.372412379461386 0:9115 
0.05094887761066226 0:9133 
0.7820931663882925 0:9240 
0.3382090107052098 0:9281 
4.034582405985693 0:9292 
0.01675014865327468 0:9301 
1.290131336018302 0:9338 
1.10024593023748 0:9358 
0.5308412847166333 0:9359 
2.614033298961864 0:9419 
1.359803315599678 0:9461 
1.136311996220227 0:9479 
1.866746176694132 0:9501 
0.1026487066278136 0:9582 
0.1947336672829283 0:9604 
0.3819667406096193 0:9708 
0.07801751520561438 0:9748 
1.684521208327955 0:9761 
0.2419873443123501 0:9772 
1.4961536347182 0:9791 
0.3682168326710087 0:9814 
0.433821947634068 0:9815 
0.8401845762392608 0:9822 
0.3750069360959076 0:9836 
0.04864102475359216 0:9865 
1.236532238515979 0:9866 
1.367626290808476 0:9910 
0.2262518859657964 0:9953 
0.6392745329219041 0:9983 
1.791272742956232 0:9985 
0.420988571971555 0:10216 
0.2054261860222456 0:10274 
1.253583919667375 0:10278 
0.4508636183312996 0:10290 
1.829945230400014 0:10315 
0.7393097801826383 0:10316 
0.2997536531207221 0:10334 
0.222493460219301 0:10352 
0.9963004658483445 0:10358 
7.128258095456618 0:10362 
2.199796267576829 0:10381 
0.8459373138332177 0:10419 
0.2604461824388744 0:10659 
0.3173017042638254 0:10721 
0.6819342046563958 0:10742 
1.76164033366868 0:10834 
0.3516579935570793 0:10856 
0.09022770917384072 0:10874 
1.535791332862054 0:10892 
1.511455093068113 0:10920 
0.7338816670624649 0:10926 
0.3723259105479635 0:10949 
0.06917597312027764 0:10957 
1.356484772181959 0:11020 
0.7491292394200212 0:11083 
1.382277504096279 0:11097 
0.3488832557043253 0:11106 
1.235383984826881 0:11120 
0.3396490646676327 0:11233 
0.551396699062506 0:11280 
0.9015925785832964 0:11350 
1.048274378981668 0:11392 
0.2168791702504858 0:11420 
1.674479065718895 0:11441 
0.1947003077107873 0:11447 
2.877724071016823 0:11450 
0.06577515256466694 0:11504 
0.1500824696989877 0:11565 
5.362735383170098 0:11571 
0.1163511940686755 0:11586 
0.1041013994272986 0:11615 
0.8630280900312038 0:11621 
0.1414517310150989 0:11833 
0.448106254082252 0:11874 
8 0:11911 
0.03048911048876708 0:11913 
6.957366482084017 0:11941 
2.458385557510005 0:11965 
1.670968990297529 0:11966 
1.482001617236752 0:11995 
0.01963796916949227 0:12003 
0.6270620286364232 0:12026 
2.659629873415871 0:12036 
0.9968428931948785 0:12060 
0.2719161540785889 0:12068 
0.9979734021168319 0:12142 
0.6692275564077945 0:12300 
0.5897411491100805 0:12305 
0.08580163554207831 0:12307 
1.578580611848869 0:12434 
2.879189412353337 0:12455 
1.205657585770064 0:12460 
2.319971549216088 0:12472 
0.329890835834951 0:12491 
2.363964523391549 0:12522 
0.7194580785538968 0:12544 
0.4339886462523476 0:12629 
1.082225870209067 0:12639 
2.467754336615463 0:12641 
0.1729806141750014 0:12694 
0.01555827334126188 0:12723 
2.22586917074042 0:12756 
0.8944898962970671 0:12769 
0.8549244421160531 0:12808 
1.502084471278965 0:12828 
1.673334912479945 0:12900 
0.3902752407513979 0:12973 
0.02215532326575965 0:13005 
0.2586272157251242 0:13128 
0.2295294435735395 0:13152 
0.0338250776031549 0:13165 
0.181741876225353 0:13196 
0.38736757274727 0:13301 
0.04482406950956126 0:13303 
0.2506580690739898 0:13344 
0.5524633648257097 0:13474 
0.6263954163286072 0:13497 
1.484336932313003 0:13516 
0.5894259756107149 0:13529 
5.750034523724898 0:13532 
0.5184144903403726 0:13549 
2.629132939263495 0:13577 
0.1471544123541174 0:13611 
0.425121800533889 0:13620 
0.03592389319786949 0:13629 
2.716349630403699 0:13664 
0.0001909566222930933 0:13690 
4.067833575044027 0:13700 
0.5686107225449907 0:13707 
0.5589830775213176 0:13722 
0.3938112687038265 0:13749 
1.060590402200698 0:13762 
1.669010593251366 0:13777 
0.01671562860112856 0:13788 
1.078704439800516 0:13789 
5.896278170416174 0:13867 
0.5191819171534375 0:13870 
1.384990975348321 0:13910 
0.8969202530218305 0:13920 
0.7182462168614885 0:13935 
0.3671100099754487 0:13952 
1.641294252708185 0:14013 
0.3968907360810208 0:14053 
0.5469794451492505 0:14096 
0.5904677589001875 0:14110 
0.01086097215455721 0:14111 
0.1399013311768299 0:14198 
0.2358828038807541 0:14209 
0.3044787889575754 0:14243 
1.658294986010864 0:14255 
0.2419501206454848 0:14295 
0.8237314819111339 0:14340 
0.7238756732898618 0:14379 
0.3564044007817686 0:14402 
0.2141676278735734 0:14437 
0.07146766497184033 0:14467 
0.7809086528125312 0:14484 
0.1081810777908961 0:14580 
0.7149002799652828 0:14615 
0.4969574417381941 0:14668 
0.01753367141500665 0:14683 
0.06432837076776229 0:14721 
0.1307422809203096 0:14741 
1.11280581989916 0:14784 
0.06695541160878786 0:14830 
0.8360475132972057 0:14901 
1.184904147903468 0:14985 
0.634496070731006 0:15147 
2.363136703495612 0:15153 
2.061442963403067 0:15209 
1.423511302961693 0:15255 
0.1969045768064229 0:15297 
1.807968723701862 0:15342 
0.4173012264723405 0:15369 
0.5117000425150418 0:15383 
0.3674673974492695 0:15412 
0.1135301034508536 0:15481 
0.3499720632496881 0:15496 
0.09268898827810797 0:15499 
1.447233805983683 0:15526 
0.08576700551091292 0:15543 
2.065429425834975 0:15546 
0.3040764608133861 0:15560 
1.427651926272236 0:15564 
0.01187218061066295 0:15581 
1.040549281261603 0:15616 
1.056688315526894 0:15640 
1.168629047141583 0:15643 
0.9482936440841474 0:15645 
0.4764435771739882 0:15717 
2.785941111340066 0:15733 
2.594541852596777 0:15750 
0.3451384672194485 0:15789 
0.8731471071366604 0:15891 
0.1640409912061274 0:15924 
0.0440373967805175 0:15928 
0.1485192306337009 0:15991 
0.09804231902466409 0:16002 
0.5279076841242387 0:16008 
1.570825100408349 0:16060 
0.9704549363182609 0:16171 
0.2242277779558504 0:16223 
0.1914584044843721 0:16260 
0.5740745373981289 0:16331 
0.05410313779643511 0:16433 
1.573654017162185 0:16439 
0.2328426661508135 0:16516 
0.1088212319097861 0:16582 
2.436007449602377 0:16588 
0.1185349646088484 0:16592 
1.057820372239265 0:16607 
0.02678722898199472 0:16695 
0.7361563453604965 0:16696 
0.9664185729377481 0:16769 
0.9139912224784941 0:16801 
0.1551057523187078 0:16802 
0.1931017116966401 0:16900 
4.85829541238881 0:16954 
0.2895028710761491 0:16991 
0.07342282955883682 0:17102 
0.7117828532735403 0:17135 
1.056603163314227 0:17161 
1.108943622754987 0:17167 
4.475153495786732 0:17171 
0.3865315746313728 0:17311 
0.9886490885429884 0:17315 
3.225738875493002 0:17327 
0.2731508319870095 0:17495 
2.242771809348191 0:17509 
2.639752055765163 0:17547 
2.051421886686535 0:17585 
0.7424274838145265 0:17587 
0.05492378654826537 0:17666 
3.276451352218689 0:17762 
0.4790203122145272 0:17794 
0.175920194422406 0:17804 
0.02154269649680917 0:17818 
4.817794455009056 0:17835 
1.984768323702068 0:17839 
1.462955557918137 0:17841 
0.01938307708713783 0:17854 
0.07433977255346551 0:17877 
1.901706092898306 0:17990 
0.6934470192340291 0:18069 
0.2926878405457304 0:18125 
1.057756138732046 0:18129 
0.01719228870017393 0:18152 
2.811986939595986 0:18162 
0.2268666209291645 0:18195 
0.6020609257429183 0:18294 
3.80351989030288 0:18312 
1.033456251813016 0:18328 
0.1969127571632858 0:18343 
1.231431629083908 0:18354 
4.779493539852481 0:18375 
0.4136239140943552 0:18441 
0.07674283384304691 0:18480 
0.4965479418223046 0:18518 
0.03488701548310122 0:18564 
1.270172150184526 0:18589 
0.2881873624835438 0:18607 
0.1263380666450678 0:18719 
0.270770614067612 0:18748 
0.08218446231742708 0:18783 
0.157273247147371 0:18882 
0.2144070599895955 0:18912 
0.2080154760507542 0:18929 
0.597483016399841 0:18937 
3.776030980703442 0:18942 
0.309756632161039 0:18956 
4.764479286272776 0:18984 
0.4428463679836376 0:19037 
1.913414415324842 0:19047 
2.470892918732071 0:19050 
0.658167506162108 0:19096 
0.8880481062769177 0:19131 
2.907745373877642 0:19171 
3.681122567134921 0:19234 
0.2349925547232814 0:19269 
0.08743600736848364 0:19294 
2.708301109319407 0:19315 
0.3440818113319832 0:19318 
0.8202151410269403 0:19353 
1.773855348842823 0:19520 
0.06106790157813499 0:19563 
7.485163355178886 0:19601 
0.2237537971301072 0:19626 
0.5568452925764742 0:19633 
0.501726903942071 0:19650 
7.181466169183035 0:19749 
0.7541795068525092 0:19759 
1.713928254581387 0:19778 
0.0527903862180685 0:19780 
0.1355130668213587 0:19796 
0.03091134183220354 0:19825 
0.1444500887522866 0:19867 
0.3234217236128751 0:19923 
2.430466958704248 0:19930 
0.4944013401381375 0:19942 
8 0:19961 
1.065719501707459 0:20000 
0.0779103618872604 0:20028 
3.418021422113823 0:20053 
0.4554950135872508 0:20054 
2.301276502430939 0:20132 
0.1451933932871836 0:20172 
6.791423379008855 0:20182 
0.1534916871737415 0:20207 
1.031387688777061 0:20314 
0.01001608961112054 0:20323 
0.5337092824759528 0:20327 
0.4239394774256754 0:20339 
0.07537942518683366 0:20345 
3.214425833824321 0:20353 
0.4271439467487165 0:20394 
0.03430347645450177 0:20442 
0.006331886740480816 0:20464 
1.648285579010405 0:20466 
0.2896254563734623 0:20518 
1.841385838360373 0:20520 
3.882367460567731 0:20542 
0.3632147988397595 0:20601 
0.06586007913952414 0:20668 
1.227135917409377 0:20688 
0.5769412462783787 0:20690 
1.878545617819588 0:20755 
0.5282493040447881 0:20759 
0.05017116800265733 0:20761 
0.3835892817257256 0:20800 
0.4701653730196746 0:20807 
0.4180208429133684 0:20824 
0.9001509303555869 0:20853 
1.005863286545676 0:20856 
0.2968751583088369 0:20932 
0.3658973120748778 0:21019 
2.164087859401765 0:21111 
2.295547042216735 0:21181 
1.117161222945105 0:21190 
0.0210853144994879 0:21191 
4.047257748291705 0:21246 
1.273617517358126 0:21276 
4.870362207265718 0:21361 
1.873042570214455 0:21385 
1.33362251524721 0:21445 
0.07459557786968146 0:21479 
0.7482894062879325 0:21529 
1.859443247238469 0:21568 
0.3493774886724277 0:21594 
1.17743029938235 0:21645 
0.03264489527770266 0:21695 
0.4456659380832595 0:21701 
3.766814518342633 0:21711 
0.01250431960762389 0:21731 
2.366876492925897 0:21793 
0.3024066106204749 0:21872 
1.171183938314845 0:21922 
1.639103631663206 0:21929 
0.2257797640997879 0:21955 
1.47506438651485 0:21995 
0.05377643489980884 0:22038 
4.674349300532818 0:22065 
0.7787029607112266 0:22076 
0.3090183890785438 0:22102 
3.792841611841318 0:22118 
1.304066524325007 0:22203 
3.112972941746285 0:22227 
3.523942722951635 0:22241 
0.6762087895596816 0:22303 
0.246003932140536 0:22434 
3.329536919021984 0:22440 
0.06243285854268734 0:22448 
2.050859375540322 0:22513 
4.363545580759419 0:22519 
0.2929532774749723 0:22539 
0.4158559517571191 0:22552 
0.5057429555698137 0:22596 
1.548153147340499 0:22615 
0.1863349146720492 0:22695 
1.76263091233035 0:22700 
0.3361108944713099 0:22726 
0.6383933442216535 0:22808 
0.2085549221241004 0:22850 
0.4498573771942726 0:22879 
0.6371224131368992 0:22979 
0.1773759761265345 0:23036 
0.4077902195042501 0:23039 
2.275366755288263 0:23060 
8 0:23235 
0.09768432531300764 0:23321 
1.289096001780638 0:23342 
0.4603390329047337 0:23352 
2.464511290627293 0:23378 
0.7462259808014946 0:23549 
0.1173105989327959 0:23581 
0.6842483050955167 0:23600 
0.01819190065817492 0:23605 
1.527295895092589 0:23627 
0.5745776578337328 0:23681 
1.032793492236462 0:23692 
0.1569159670311592 0:23773 
1.284467372202989 0:23797 
1.270546522606878 0:23816 
0.1913562694692296 0:23829 
0.1349678932763481 0:23891 
0.6936397352124969 0:23918 
0.3005016708634458 0:23923 
3.22535458581961 0:23945 
0.2877327018502526 0:23951 
1.431551016710754 0:24004 
0.4298966998721827 0:24077 
0.9758849036314342 0:24097 
0.5995942303125877 0:24123 
0.27788411294729 0:24154 
0.1149944160852497 0:24183 
2.111267590812137 0:24184 
0.8850873407994289 0:24204 
2.349681048927336 0:24228 
1.929361160479082 0:24238 
-1.256013330807013 0:22 
-5.445014767501045 0:169 
-3.961789097012509 0:204 
-1.643560223997442 0:424 
-6.082414178850474 0:638 
-1.348996307546836 0:724 
-3.015194110525619 0:934 
-3.76290662522186 0:1020 
-1.175091931292957 0:1093 
-4.212365084213595 0:1230 
-4.667104756569151 0:1243 
-3.784719636567338 0:1350 
-0.5445309547110091 0:1421 
-7.284503203281848 0:1450 
-3.004867650895616 0:1493 
-3.329777565041997 0:1649 
-3.983923476660778 0:1724 
-2.10223930766435 0:1837 
-1.117473654199799 0:1894 
-6.435727135402687 0:2019 
-0.807752104563993 0:2032 
-2.557029422221091 0:2086 
-3.642720076039299 0:2277 
-4.995746229950241 0:2365 
-3.848687679445391 0:2366 
-5.388633061621 0:2560 
-5.330309004062122 0:2642 
-1.040273965067188 0:2698 
-3.521042018511417 0:2713 
-4.116539808195308 0:2736 
-1.392373891633973 0:3209 
-0.3911933838403674 0:3345 
-7.496687894248822 0:3679 
-2.580880007245248 0:3865 
-3.041031007373492 0:4010 
-1.030788043651141 0:4025 
-2.284837794729423 0:4175 
-4.929132507136269 0:4781 
-0.2933866839030145 0:4827 
-2.374086237083118 0:4898 
-3.654407639526429 0:4970 
-1.34674320230973 0:5055 
-2.033035832182121 0:5189 
-0.7415635805907876 0:5287 
-1.773289915732861 0:5367 
-6.979205602454531 0:5420 
-0.9400589334498042 0:5460 
-7.019809323359095 0:5476 
-4.570686165238675 0:5530 
-5.119469038163157 0:5546 
-3.922365209808042 0:5666 
-3.687019655409424 0:5710 
-4.448043996077623 0:5877 
-2.130868310046267 0:5901 
-3.590561914489835 0:5973 
-7.520991388590725 0:6057 
-2.09449794725255 0:6081 
-4.107937335825135 0:6174 
-1.43769948726036 0:6288 
-5.259388713233265 0:6292 
-1.089442914046104 0:6427 
-5.399956023695318 0:6462 
-2.805107931269378 0:6526 
-2.684091842433075 0:6616 
-3.876051095404745 0:6870 
-4.159302428778937 0:6883 
-4.069926607078584 0:6884 
-4.629751256033618 0:6888 
-1.487991300024093 0:6907 
-8 0:7047 
-3.189793197839105 0:7338 
-2.171094028004636 0:7396 
-1.616414497879274 0:7622 
-2.834497686276266 0:7703 
-5.370012085732187 0:7717 
-6.360216869962578 0:7789 
-4.09656038354434 0:7871 
-4.903030648833242 0:7908 
-2.968078787648811 0:8524 
-8 0:8630 
-1.12499843679373 0:8656 
-1.209845906437783 0:8740 
-2.220142140723697 0:8783 
-6.147287240548833 0:8996 
-2.547393859174715 0:9034 
-1.918891110495322 0:9383 
-2.351411620627745 0:9518 
-3.297691908178924 0:9522 
-8 0:9571 
-5.681613092865784 0:9704 
-6.581185795822572 0:10012 
-6.456785823424125 0:10076 
-1.611265546040016 0:10210 
-3.567149528124691 0:10271 
-7.160704656462483 0:10282 
-2.010364733495726 0:10306 
-3.878060474702424 0:10393 
-7.775144426038968 0:10692 
-5.257295990676335 0:10763 
-7.909538772729615 0:10798 
-6.813062038702648 0:10823 
-8 0:10907 
-2.106864120316477 0:11033 
-3.741392302795966 0:11124 
-5.426735916624674 0:11186 
-3.265632006777368 0:11214 
-2.708473470911479 0:11299 
-0.3959201528470708 0:11430 
-0.149232898068425 0:11436 
-2.443071992545028 0:11810 
-8 0:12089 
-2.428062009915855 0:12242 
-0.01932083109889601 0:12338 
-4.482249630832356 0:12373 
-4.287922256344094 0:12519 
-8 0:12860 
-0.5073741724815467 0:13033 
-4.456848121164588 0:13064 
-2.022795444593736 0:13236 
-3.833034734087721 0:13271 
-4.915206473430385 0:13286 
-2.586706522741948 0:13357 
-5.043577843425604 0:13493 
-0.552307920105892 0:13536 
-2.873859106270156 0:13603 
-0.4026936738457245 0:13728 
-1.302219025562989 0:13818 
-2.578950976801592 0:13866 
-3.897860107320851 0:13869 
-3.431853080012907 0:13963 
-3.165279263608277 0:13984 
-0.7961210146658538 0:13989 
-2.210803505928739 0:13996 
-4.289843942010178 0:14105 
-2.53404197376607 0:14156 
-3.098741738789355 0:14166 
-3.44013202300962 0:14182 
-0.1390074075393699 0:14216 
-3.426992969198696 0:14372 
-4.129643905637557 0:14382 
-2.682284002705718 0:14465 
-0.05440596726600852 0:14508 
-2.407827263240327 0:14558 
-3.861142078573014 0:14592 
-2.286157287406283 0:14620 
-3.866584390506064 0:14627 
-5.411897091274025 0:14672 
-2.851837826185045 0:14760 
-0.5727178407042254 0:14787 
-0.6894470193260136 0:14874 
-1.422397287535305 0:14899 
-1.83638543833486 0:15122 
-2.987144375831696 0:15156 
-1.756821806494412 0:15290 
-0.07847446105660427 0:15629 
-7.118097305316187 0:16051 
-2.637782419859441 0:16116 
-2.78595065788957 0:16209 
-3.46767695379289 0:16362 
-5.214540973592286 0:16404 
-0.7579582335934197 0:16690 
-0.373974359422407 0:16710 
-0.1412082952927567 0:16813 
-3.81901569257347 0:16921 
-3.380303393627786 0:16960 
-2.706796903686701 0:17001 
-2.20723030840671 0:17104 
-2.387772434399555 0:17129 
-1.668299106651012 0:17266 
-2.172462424105309 0:17305 
-4.133272784271984 0:17379 
-2.846367448746732 0:17648 
-0.4542310366005881 0:17772 
-0.2210163537336091 0:17843 
-2.861930292512976 0:17849 
-2.266483425470629 0:17964 
-2.127070132672992 0:18003 
-3.996951557244541 0:18326 
-4.345660070473807 0:18444 
-3.447949902885165 0:18467 
-1.820726359535579 0:18588 
-2.157269092311553 0:18593 
-0.06657690249973479 0:18705 
-2.000562793521911 0:18864 
-5.569990595725244 0:19049 
-3.943149724563171 0:19215 
-4.269933919223575 0:19521 
-2.253034492699107 0:19638 
-0.2155603421496831 0:19664 
-1.251854791466415 0:19764 
-1.082170550264991 0:19815 
-4.716510865063924 0:20096 
-8 0:20220 
-6.24609522035882 0:20285 
-2.523557607002699 0:20508 
-1.538997465410484 0:20855 
-1.355097633579474 0:20876 
-5.791844676814009 0:20905 
-4.646238319716363 0:20962 
-2.922547814803873 0:21054 
-1.450317715324366 0:21277 
-6.495147541894896 0:21413 
-3.390756394130342 0:21473 
-3.711816790042509 0:21803 
-2.766845475243958 0:21828 
-3.602116104989426 0:21837 
-0.8830410622759093 0:21942 
-7.445783762134724 0:22323 
-1.81146000041221 0:22379 
-8 0:22484 
-3.496340862433764 0:22544 
-0.4663500485989893 0:22608 
-3.886519221202541 0:22841 
-6.03079543425496 0:22884 
-2.719992744914537 0:23139 
-8 0:23319 
-6.55989798624219 0:23701 
-7.432189127193032 0:23864 
-2.093969686644694 0:23930 
-6.447737979611268 0:24035 
